<?xml version="1.0" encoding="UTF-8"?>
<PMML xmlns="http://www.dmg.org/PMML-4_4" version="4.4.1">
    <Header copyright="Copyright (c) 2021 Software AG" description="Default description">
        <Application name="Nyoka" version="5.5.0"/>
        <Timestamp>2026-02-22 09:13:21.732175</Timestamp>
    </Header>
    <DataDictionary numberOfFields="5">
        <DataField name="sepal length (cm)" optype="continuous" dataType="double"/>
        <DataField name="sepal width (cm)" optype="continuous" dataType="double"/>
        <DataField name="petal length (cm)" optype="continuous" dataType="double"/>
        <DataField name="petal width (cm)" optype="continuous" dataType="double"/>
        <DataField name="species" optype="categorical" dataType="integer">
            <Value value="0"/>
            <Value value="1"/>
            <Value value="2"/>
        </DataField>
    </DataDictionary>
    <TransformationDictionary>
        <DerivedField name="standardScaler(sepal length (cm))" optype="continuous" dataType="double">
            <Apply function="/">
                <Apply function="-">
                    <FieldRef field="sepal length (cm)"/>
                    <Constant dataType="double">5.8519999999999994</Constant>
                </Apply>
                <Constant dataType="double">0.8051683053871408</Constant>
            </Apply>
        </DerivedField>
        <DerivedField name="standardScaler(sepal width (cm))" optype="continuous" dataType="double">
            <Apply function="/">
                <Apply function="-">
                    <FieldRef field="sepal width (cm)"/>
                    <Constant dataType="double">3.0440000000000005</Constant>
                </Apply>
                <Constant dataType="double">0.4104436623947310</Constant>
            </Apply>
        </DerivedField>
        <DerivedField name="standardScaler(petal length (cm))" optype="continuous" dataType="double">
            <Apply function="/">
                <Apply function="-">
                    <FieldRef field="petal length (cm)"/>
                    <Constant dataType="double">3.8159999999999989</Constant>
                </Apply>
                <Constant dataType="double">1.7143348564384966</Constant>
            </Apply>
        </DerivedField>
        <DerivedField name="standardScaler(petal width (cm))" optype="continuous" dataType="double">
            <Apply function="/">
                <Apply function="-">
                    <FieldRef field="petal width (cm)"/>
                    <Constant dataType="double">1.2190000000000001</Constant>
                </Apply>
                <Constant dataType="double">0.7565308982454056</Constant>
            </Apply>
        </DerivedField>
    </TransformationDictionary>
    <MiningModel modelName="XGBoostModel" functionName="classification">
        <MiningSchema>
            <MiningField name="sepal length (cm)" usageType="active" optype="continuous"/>
            <MiningField name="sepal width (cm)" usageType="active" optype="continuous"/>
            <MiningField name="petal length (cm)" usageType="active" optype="continuous"/>
            <MiningField name="petal width (cm)" usageType="active" optype="continuous"/>
            <MiningField name="species" usageType="target" optype="categorical"/>
        </MiningSchema>
        <Output>
            <OutputField name="species_probability_0" optype="continuous" dataType="double" feature="probability" value="0"/>
            <OutputField name="species_probability_1" optype="continuous" dataType="double" feature="probability" value="1"/>
            <OutputField name="species_probability_2" optype="continuous" dataType="double" feature="probability" value="2"/>
            <OutputField name="predicted_species" optype="categorical" dataType="integer" feature="predictedValue"/>
        </Output>
        <Segmentation multipleModelMethod="modelChain" missingThreshold="1">
            <Segment id="1" weight="1">
                <True/>
                <MiningModel modelName="MiningModel" functionName="regression">
                    <MiningSchema>
                        <MiningField name="sepal length (cm)" usageType="active"/>
                        <MiningField name="sepal width (cm)" usageType="active"/>
                        <MiningField name="petal length (cm)" usageType="active"/>
                        <MiningField name="petal width (cm)" usageType="active"/>
                    </MiningSchema>
                    <Output>
                        <OutputField name="xgbValue(0)" optype="continuous" dataType="float" feature="predictedValue"/>
                    </Output>
                    <Segmentation multipleModelMethod="sum" missingThreshold="1">
                        <Segment id="1" weight="1">
                            <True/>
                            <TreeModel modelName="DecisionTreeModel" functionName="regression" missingValuePenalty="1.0" noTrueChildStrategy="returnLastPrediction">
                                <MiningSchema>
                                    <MiningField name="sepal length (cm)" usageType="active"/>
                                    <MiningField name="sepal width (cm)" usageType="active"/>
                                    <MiningField name="petal length (cm)" usageType="active"/>
                                    <MiningField name="petal width (cm)" usageType="active"/>
                                </MiningSchema>
                                <Node>
                                    <True/>
                                    <Node score="0.140145987">
                                        <SimplePredicate field="standardScaler(petal length (cm))" operator="lessThan" value="-0.7968105080000000"/>
                                    </Node>
                                    <Node score="-0.0725978762">
                                        <SimplePredicate field="standardScaler(petal length (cm))" operator="greaterOrEqual" value="-0.7968105080000000"/>
                                    </Node>
                                </Node>
                            </TreeModel>
                        </Segment>
                        <Segment id="2" weight="1">
                            <True/>
                            <TreeModel modelName="DecisionTreeModel" functionName="regression" missingValuePenalty="1.0" noTrueChildStrategy="returnLastPrediction">
                                <MiningSchema>
                                    <MiningField name="sepal length (cm)" usageType="active"/>
                                    <MiningField name="sepal width (cm)" usageType="active"/>
                                    <MiningField name="petal length (cm)" usageType="active"/>
                                    <MiningField name="petal width (cm)" usageType="active"/>
                                </MiningSchema>
                                <Node>
                                    <True/>
                                    <Node score="0.122820489">
                                        <SimplePredicate field="standardScaler(petal length (cm))" operator="lessThan" value="-0.7968105080000000"/>
                                    </Node>
                                    <Node score="-0.0699532181">
                                        <SimplePredicate field="standardScaler(petal length (cm))" operator="greaterOrEqual" value="-0.7968105080000000"/>
                                    </Node>
                                </Node>
                            </TreeModel>
                        </Segment>
                        <Segment id="3" weight="1">
                            <True/>
                            <TreeModel modelName="DecisionTreeModel" functionName="regression" missingValuePenalty="1.0" noTrueChildStrategy="returnLastPrediction">
                                <MiningSchema>
                                    <MiningField name="sepal length (cm)" usageType="active"/>
                                    <MiningField name="sepal width (cm)" usageType="active"/>
                                    <MiningField name="petal length (cm)" usageType="active"/>
                                    <MiningField name="petal width (cm)" usageType="active"/>
                                </MiningSchema>
                                <Node>
                                    <True/>
                                    <Node score="0.109840833">
                                        <SimplePredicate field="standardScaler(petal length (cm))" operator="lessThan" value="-0.7968105080000000"/>
                                    </Node>
                                    <Node score="-0.0676086172">
                                        <SimplePredicate field="standardScaler(petal length (cm))" operator="greaterOrEqual" value="-0.7968105080000000"/>
                                    </Node>
                                </Node>
                            </TreeModel>
                        </Segment>
                        <Segment id="4" weight="1">
                            <True/>
                            <TreeModel modelName="DecisionTreeModel" functionName="regression" missingValuePenalty="1.0" noTrueChildStrategy="returnLastPrediction">
                                <MiningSchema>
                                    <MiningField name="sepal length (cm)" usageType="active"/>
                                    <MiningField name="sepal width (cm)" usageType="active"/>
                                    <MiningField name="petal length (cm)" usageType="active"/>
                                    <MiningField name="petal width (cm)" usageType="active"/>
                                </MiningSchema>
                                <Node>
                                    <True/>
                                    <Node score="0.0998037979">
                                        <SimplePredicate field="standardScaler(petal length (cm))" operator="lessThan" value="-0.7968105080000000"/>
                                    </Node>
                                    <Node score="-0.0655063391">
                                        <SimplePredicate field="standardScaler(petal length (cm))" operator="greaterOrEqual" value="-0.7968105080000000"/>
                                    </Node>
                                </Node>
                            </TreeModel>
                        </Segment>
                        <Segment id="5" weight="1">
                            <True/>
                            <TreeModel modelName="DecisionTreeModel" functionName="regression" missingValuePenalty="1.0" noTrueChildStrategy="returnLastPrediction">
                                <MiningSchema>
                                    <MiningField name="sepal length (cm)" usageType="active"/>
                                    <MiningField name="sepal width (cm)" usageType="active"/>
                                    <MiningField name="petal length (cm)" usageType="active"/>
                                    <MiningField name="petal width (cm)" usageType="active"/>
                                </MiningSchema>
                                <Node>
                                    <True/>
                                    <Node score="0.0918455347">
                                        <SimplePredicate field="standardScaler(petal length (cm))" operator="lessThan" value="-0.7968105080000000"/>
                                    </Node>
                                    <Node score="-0.0636415333">
                                        <SimplePredicate field="standardScaler(petal length (cm))" operator="greaterOrEqual" value="-0.7968105080000000"/>
                                    </Node>
                                </Node>
                            </TreeModel>
                        </Segment>
                        <Segment id="6" weight="1">
                            <True/>
                            <TreeModel modelName="DecisionTreeModel" functionName="regression" missingValuePenalty="1.0" noTrueChildStrategy="returnLastPrediction">
                                <MiningSchema>
                                    <MiningField name="sepal length (cm)" usageType="active"/>
                                    <MiningField name="sepal width (cm)" usageType="active"/>
                                    <MiningField name="petal length (cm)" usageType="active"/>
                                    <MiningField name="petal width (cm)" usageType="active"/>
                                </MiningSchema>
                                <Node>
                                    <True/>
                                    <Node score="0.0854054019">
                                        <SimplePredicate field="standardScaler(petal length (cm))" operator="lessThan" value="-0.7968105080000000"/>
                                    </Node>
                                    <Node score="-0.0619699024">
                                        <SimplePredicate field="standardScaler(petal length (cm))" operator="greaterOrEqual" value="-0.7968105080000000"/>
                                    </Node>
                                </Node>
                            </TreeModel>
                        </Segment>
                        <Segment id="7" weight="1">
                            <True/>
                            <TreeModel modelName="DecisionTreeModel" functionName="regression" missingValuePenalty="1.0" noTrueChildStrategy="returnLastPrediction">
                                <MiningSchema>
                                    <MiningField name="sepal length (cm)" usageType="active"/>
                                    <MiningField name="sepal width (cm)" usageType="active"/>
                                    <MiningField name="petal length (cm)" usageType="active"/>
                                    <MiningField name="petal width (cm)" usageType="active"/>
                                </MiningSchema>
                                <Node>
                                    <True/>
                                    <Node score="0.0801038668">
                                        <SimplePredicate field="standardScaler(petal length (cm))" operator="lessThan" value="-0.7968105080000000"/>
                                    </Node>
                                    <Node score="-0.0604652837">
                                        <SimplePredicate field="standardScaler(petal length (cm))" operator="greaterOrEqual" value="-0.7968105080000000"/>
                                    </Node>
                                </Node>
                            </TreeModel>
                        </Segment>
                        <Segment id="8" weight="1">
                            <True/>
                            <TreeModel modelName="DecisionTreeModel" functionName="regression" missingValuePenalty="1.0" noTrueChildStrategy="returnLastPrediction">
                                <MiningSchema>
                                    <MiningField name="sepal length (cm)" usageType="active"/>
                                    <MiningField name="sepal width (cm)" usageType="active"/>
                                    <MiningField name="petal length (cm)" usageType="active"/>
                                    <MiningField name="petal width (cm)" usageType="active"/>
                                </MiningSchema>
                                <Node>
                                    <True/>
                                    <Node score="0.0756749809">
                                        <SimplePredicate field="standardScaler(petal length (cm))" operator="lessThan" value="-0.7968105080000000"/>
                                    </Node>
                                    <Node score="-0.0591090806">
                                        <SimplePredicate field="standardScaler(petal length (cm))" operator="greaterOrEqual" value="-0.7968105080000000"/>
                                    </Node>
                                </Node>
                            </TreeModel>
                        </Segment>
                        <Segment id="9" weight="1">
                            <True/>
                            <TreeModel modelName="DecisionTreeModel" functionName="regression" missingValuePenalty="1.0" noTrueChildStrategy="returnLastPrediction">
                                <MiningSchema>
                                    <MiningField name="sepal length (cm)" usageType="active"/>
                                    <MiningField name="sepal width (cm)" usageType="active"/>
                                    <MiningField name="petal length (cm)" usageType="active"/>
                                    <MiningField name="petal width (cm)" usageType="active"/>
                                </MiningSchema>
                                <Node>
                                    <True/>
                                    <Node score="0.0719270036">
                                        <SimplePredicate field="standardScaler(petal length (cm))" operator="lessThan" value="-0.7968105080000000"/>
                                    </Node>
                                    <Node score="-0.0578736849">
                                        <SimplePredicate field="standardScaler(petal length (cm))" operator="greaterOrEqual" value="-0.7968105080000000"/>
                                    </Node>
                                </Node>
                            </TreeModel>
                        </Segment>
                        <Segment id="10" weight="1">
                            <True/>
                            <TreeModel modelName="DecisionTreeModel" functionName="regression" missingValuePenalty="1.0" noTrueChildStrategy="returnLastPrediction">
                                <MiningSchema>
                                    <MiningField name="sepal length (cm)" usageType="active"/>
                                    <MiningField name="sepal width (cm)" usageType="active"/>
                                    <MiningField name="petal length (cm)" usageType="active"/>
                                    <MiningField name="petal width (cm)" usageType="active"/>
                                </MiningSchema>
                                <Node>
                                    <True/>
                                    <Node score="0.0687182322">
                                        <SimplePredicate field="standardScaler(petal length (cm))" operator="lessThan" value="-0.7968105080000000"/>
                                    </Node>
                                    <Node score="-0.0567501485">
                                        <SimplePredicate field="standardScaler(petal length (cm))" operator="greaterOrEqual" value="-0.7968105080000000"/>
                                    </Node>
                                </Node>
                            </TreeModel>
                        </Segment>
                        <Segment id="11" weight="1">
                            <True/>
                            <TreeModel modelName="DecisionTreeModel" functionName="regression" missingValuePenalty="1.0" noTrueChildStrategy="returnLastPrediction">
                                <MiningSchema>
                                    <MiningField name="sepal length (cm)" usageType="active"/>
                                    <MiningField name="sepal width (cm)" usageType="active"/>
                                    <MiningField name="petal length (cm)" usageType="active"/>
                                    <MiningField name="petal width (cm)" usageType="active"/>
                                </MiningSchema>
                                <Node>
                                    <True/>
                                    <Node score="0.0659417212">
                                        <SimplePredicate field="standardScaler(petal length (cm))" operator="lessThan" value="-0.7968105080000000"/>
                                    </Node>
                                    <Node score="-0.0557235256">
                                        <SimplePredicate field="standardScaler(petal length (cm))" operator="greaterOrEqual" value="-0.7968105080000000"/>
                                    </Node>
                                </Node>
                            </TreeModel>
                        </Segment>
                        <Segment id="12" weight="1">
                            <True/>
                            <TreeModel modelName="DecisionTreeModel" functionName="regression" missingValuePenalty="1.0" noTrueChildStrategy="returnLastPrediction">
                                <MiningSchema>
                                    <MiningField name="sepal length (cm)" usageType="active"/>
                                    <MiningField name="sepal width (cm)" usageType="active"/>
                                    <MiningField name="petal length (cm)" usageType="active"/>
                                    <MiningField name="petal width (cm)" usageType="active"/>
                                </MiningSchema>
                                <Node>
                                    <True/>
                                    <Node score="0.0635152832">
                                        <SimplePredicate field="standardScaler(petal length (cm))" operator="lessThan" value="-0.7968105080000000"/>
                                    </Node>
                                    <Node score="-0.0547763892">
                                        <SimplePredicate field="standardScaler(petal length (cm))" operator="greaterOrEqual" value="-0.7968105080000000"/>
                                    </Node>
                                </Node>
                            </TreeModel>
                        </Segment>
                        <Segment id="13" weight="1">
                            <True/>
                            <TreeModel modelName="DecisionTreeModel" functionName="regression" missingValuePenalty="1.0" noTrueChildStrategy="returnLastPrediction">
                                <MiningSchema>
                                    <MiningField name="sepal length (cm)" usageType="active"/>
                                    <MiningField name="sepal width (cm)" usageType="active"/>
                                    <MiningField name="petal length (cm)" usageType="active"/>
                                    <MiningField name="petal width (cm)" usageType="active"/>
                                </MiningSchema>
                                <Node>
                                    <True/>
                                    <Node score="0.0613746718">
                                        <SimplePredicate field="standardScaler(petal length (cm))" operator="lessThan" value="-0.7968105080000000"/>
                                    </Node>
                                    <Node score="-0.0538969934">
                                        <SimplePredicate field="standardScaler(petal length (cm))" operator="greaterOrEqual" value="-0.7968105080000000"/>
                                    </Node>
                                </Node>
                            </TreeModel>
                        </Segment>
                        <Segment id="14" weight="1">
                            <True/>
                            <TreeModel modelName="DecisionTreeModel" functionName="regression" missingValuePenalty="1.0" noTrueChildStrategy="returnLastPrediction">
                                <MiningSchema>
                                    <MiningField name="sepal length (cm)" usageType="active"/>
                                    <MiningField name="sepal width (cm)" usageType="active"/>
                                    <MiningField name="petal length (cm)" usageType="active"/>
                                    <MiningField name="petal width (cm)" usageType="active"/>
                                </MiningSchema>
                                <Node>
                                    <True/>
                                    <Node score="0.0594606996">
                                        <SimplePredicate field="standardScaler(petal length (cm))" operator="lessThan" value="-0.7968105080000000"/>
                                    </Node>
                                    <Node score="-0.0530782416">
                                        <SimplePredicate field="standardScaler(petal length (cm))" operator="greaterOrEqual" value="-0.7968105080000000"/>
                                    </Node>
                                </Node>
                            </TreeModel>
                        </Segment>
                        <Segment id="15" weight="1">
                            <True/>
                            <TreeModel modelName="DecisionTreeModel" functionName="regression" missingValuePenalty="1.0" noTrueChildStrategy="returnLastPrediction">
                                <MiningSchema>
                                    <MiningField name="sepal length (cm)" usageType="active"/>
                                    <MiningField name="sepal width (cm)" usageType="active"/>
                                    <MiningField name="petal length (cm)" usageType="active"/>
                                    <MiningField name="petal width (cm)" usageType="active"/>
                                </MiningSchema>
                                <Node>
                                    <True/>
                                    <Node score="0.0577420294">
                                        <SimplePredicate field="standardScaler(petal length (cm))" operator="lessThan" value="-0.7968105080000000"/>
                                    </Node>
                                    <Node score="-0.0523087978">
                                        <SimplePredicate field="standardScaler(petal length (cm))" operator="greaterOrEqual" value="-0.7968105080000000"/>
                                    </Node>
                                </Node>
                            </TreeModel>
                        </Segment>
                        <Segment id="16" weight="1">
                            <True/>
                            <TreeModel modelName="DecisionTreeModel" functionName="regression" missingValuePenalty="1.0" noTrueChildStrategy="returnLastPrediction">
                                <MiningSchema>
                                    <MiningField name="sepal length (cm)" usageType="active"/>
                                    <MiningField name="sepal width (cm)" usageType="active"/>
                                    <MiningField name="petal length (cm)" usageType="active"/>
                                    <MiningField name="petal width (cm)" usageType="active"/>
                                </MiningSchema>
                                <Node>
                                    <True/>
                                    <Node score="0.0561851449">
                                        <SimplePredicate field="standardScaler(petal length (cm))" operator="lessThan" value="-0.7968105080000000"/>
                                    </Node>
                                    <Node score="-0.0515849665">
                                        <SimplePredicate field="standardScaler(petal length (cm))" operator="greaterOrEqual" value="-0.7968105080000000"/>
                                    </Node>
                                </Node>
                            </TreeModel>
                        </Segment>
                        <Segment id="17" weight="1">
                            <True/>
                            <TreeModel modelName="DecisionTreeModel" functionName="regression" missingValuePenalty="1.0" noTrueChildStrategy="returnLastPrediction">
                                <MiningSchema>
                                    <MiningField name="sepal length (cm)" usageType="active"/>
                                    <MiningField name="sepal width (cm)" usageType="active"/>
                                    <MiningField name="petal length (cm)" usageType="active"/>
                                    <MiningField name="petal width (cm)" usageType="active"/>
                                </MiningSchema>
                                <Node>
                                    <True/>
                                    <Node score="0.0547625422">
                                        <SimplePredicate field="standardScaler(petal length (cm))" operator="lessThan" value="-0.7968105080000000"/>
                                    </Node>
                                    <Node score="-0.0508953892">
                                        <SimplePredicate field="standardScaler(petal length (cm))" operator="greaterOrEqual" value="-0.7968105080000000"/>
                                    </Node>
                                </Node>
                            </TreeModel>
                        </Segment>
                        <Segment id="18" weight="1">
                            <True/>
                            <TreeModel modelName="DecisionTreeModel" functionName="regression" missingValuePenalty="1.0" noTrueChildStrategy="returnLastPrediction">
                                <MiningSchema>
                                    <MiningField name="sepal length (cm)" usageType="active"/>
                                    <MiningField name="sepal width (cm)" usageType="active"/>
                                    <MiningField name="petal length (cm)" usageType="active"/>
                                    <MiningField name="petal width (cm)" usageType="active"/>
                                </MiningSchema>
                                <Node>
                                    <True/>
                                    <Node score="0.053457357">
                                        <SimplePredicate field="standardScaler(petal length (cm))" operator="lessThan" value="-0.7968105080000000"/>
                                    </Node>
                                    <Node score="-0.0502237864">
                                        <SimplePredicate field="standardScaler(petal length (cm))" operator="greaterOrEqual" value="-0.7968105080000000"/>
                                    </Node>
                                </Node>
                            </TreeModel>
                        </Segment>
                        <Segment id="19" weight="1">
                            <True/>
                            <TreeModel modelName="DecisionTreeModel" functionName="regression" missingValuePenalty="1.0" noTrueChildStrategy="returnLastPrediction">
                                <MiningSchema>
                                    <MiningField name="sepal length (cm)" usageType="active"/>
                                    <MiningField name="sepal width (cm)" usageType="active"/>
                                    <MiningField name="petal length (cm)" usageType="active"/>
                                    <MiningField name="petal width (cm)" usageType="active"/>
                                </MiningSchema>
                                <Node>
                                    <True/>
                                    <Node score="0.0522379167">
                                        <SimplePredicate field="standardScaler(petal length (cm))" operator="lessThan" value="-0.7968105080000000"/>
                                    </Node>
                                    <Node score="-0.0495840721">
                                        <SimplePredicate field="standardScaler(petal length (cm))" operator="greaterOrEqual" value="-0.7968105080000000"/>
                                    </Node>
                                </Node>
                            </TreeModel>
                        </Segment>
                        <Segment id="20" weight="1">
                            <True/>
                            <TreeModel modelName="DecisionTreeModel" functionName="regression" missingValuePenalty="1.0" noTrueChildStrategy="returnLastPrediction">
                                <MiningSchema>
                                    <MiningField name="sepal length (cm)" usageType="active"/>
                                    <MiningField name="sepal width (cm)" usageType="active"/>
                                    <MiningField name="petal length (cm)" usageType="active"/>
                                    <MiningField name="petal width (cm)" usageType="active"/>
                                </MiningSchema>
                                <Node>
                                    <True/>
                                    <Node score="0.0510954373">
                                        <SimplePredicate field="standardScaler(petal length (cm))" operator="lessThan" value="-0.7968105080000000"/>
                                    </Node>
                                    <Node score="-0.0489606932">
                                        <SimplePredicate field="standardScaler(petal length (cm))" operator="greaterOrEqual" value="-0.7968105080000000"/>
                                    </Node>
                                </Node>
                            </TreeModel>
                        </Segment>
                        <Segment id="21" weight="1">
                            <True/>
                            <TreeModel modelName="DecisionTreeModel" functionName="regression" missingValuePenalty="1.0" noTrueChildStrategy="returnLastPrediction">
                                <MiningSchema>
                                    <MiningField name="sepal length (cm)" usageType="active"/>
                                    <MiningField name="sepal width (cm)" usageType="active"/>
                                    <MiningField name="petal length (cm)" usageType="active"/>
                                    <MiningField name="petal width (cm)" usageType="active"/>
                                </MiningSchema>
                                <Node>
                                    <True/>
                                    <Node score="0.0500165783">
                                        <SimplePredicate field="standardScaler(petal length (cm))" operator="lessThan" value="-0.7968105080000000"/>
                                    </Node>
                                    <Node score="-0.0483517759">
                                        <SimplePredicate field="standardScaler(petal length (cm))" operator="greaterOrEqual" value="-0.7968105080000000"/>
                                    </Node>
                                </Node>
                            </TreeModel>
                        </Segment>
                        <Segment id="22" weight="1">
                            <True/>
                            <TreeModel modelName="DecisionTreeModel" functionName="regression" missingValuePenalty="1.0" noTrueChildStrategy="returnLastPrediction">
                                <MiningSchema>
                                    <MiningField name="sepal length (cm)" usageType="active"/>
                                    <MiningField name="sepal width (cm)" usageType="active"/>
                                    <MiningField name="petal length (cm)" usageType="active"/>
                                    <MiningField name="petal width (cm)" usageType="active"/>
                                </MiningSchema>
                                <Node>
                                    <True/>
                                    <Node score="0.0489883684">
                                        <SimplePredicate field="standardScaler(petal length (cm))" operator="lessThan" value="-0.7968105080000000"/>
                                    </Node>
                                    <Node score="-0.0477123894">
                                        <SimplePredicate field="standardScaler(petal length (cm))" operator="greaterOrEqual" value="-0.7968105080000000"/>
                                    </Node>
                                </Node>
                            </TreeModel>
                        </Segment>
                        <Segment id="23" weight="1">
                            <True/>
                            <TreeModel modelName="DecisionTreeModel" functionName="regression" missingValuePenalty="1.0" noTrueChildStrategy="returnLastPrediction">
                                <MiningSchema>
                                    <MiningField name="sepal length (cm)" usageType="active"/>
                                    <MiningField name="sepal width (cm)" usageType="active"/>
                                    <MiningField name="petal length (cm)" usageType="active"/>
                                    <MiningField name="petal width (cm)" usageType="active"/>
                                </MiningSchema>
                                <Node>
                                    <True/>
                                    <Node score="0.0480040908">
                                        <SimplePredicate field="standardScaler(petal length (cm))" operator="lessThan" value="-0.7968105080000000"/>
                                    </Node>
                                    <Node score="-0.0471178517">
                                        <SimplePredicate field="standardScaler(petal length (cm))" operator="greaterOrEqual" value="-0.7968105080000000"/>
                                    </Node>
                                </Node>
                            </TreeModel>
                        </Segment>
                        <Segment id="24" weight="1">
                            <True/>
                            <TreeModel modelName="DecisionTreeModel" functionName="regression" missingValuePenalty="1.0" noTrueChildStrategy="returnLastPrediction">
                                <MiningSchema>
                                    <MiningField name="sepal length (cm)" usageType="active"/>
                                    <MiningField name="sepal width (cm)" usageType="active"/>
                                    <MiningField name="petal length (cm)" usageType="active"/>
                                    <MiningField name="petal width (cm)" usageType="active"/>
                                </MiningSchema>
                                <Node>
                                    <True/>
                                    <Node score="0.0470539592">
                                        <SimplePredicate field="standardScaler(petal length (cm))" operator="lessThan" value="-0.7968105080000000"/>
                                    </Node>
                                    <Node score="-0.0464828461">
                                        <SimplePredicate field="standardScaler(petal length (cm))" operator="greaterOrEqual" value="-0.7968105080000000"/>
                                    </Node>
                                </Node>
                            </TreeModel>
                        </Segment>
                        <Segment id="25" weight="1">
                            <True/>
                            <TreeModel modelName="DecisionTreeModel" functionName="regression" missingValuePenalty="1.0" noTrueChildStrategy="returnLastPrediction">
                                <MiningSchema>
                                    <MiningField name="sepal length (cm)" usageType="active"/>
                                    <MiningField name="sepal width (cm)" usageType="active"/>
                                    <MiningField name="petal length (cm)" usageType="active"/>
                                    <MiningField name="petal width (cm)" usageType="active"/>
                                </MiningSchema>
                                <Node>
                                    <True/>
                                    <Node score="0.0461321436">
                                        <SimplePredicate field="standardScaler(petal length (cm))" operator="lessThan" value="-0.7968105080000000"/>
                                    </Node>
                                    <Node score="-0.0458948202">
                                        <SimplePredicate field="standardScaler(petal length (cm))" operator="greaterOrEqual" value="-0.7968105080000000"/>
                                    </Node>
                                </Node>
                            </TreeModel>
                        </Segment>
                        <Segment id="26" weight="1">
                            <True/>
                            <TreeModel modelName="DecisionTreeModel" functionName="regression" missingValuePenalty="1.0" noTrueChildStrategy="returnLastPrediction">
                                <MiningSchema>
                                    <MiningField name="sepal length (cm)" usageType="active"/>
                                    <MiningField name="sepal width (cm)" usageType="active"/>
                                    <MiningField name="petal length (cm)" usageType="active"/>
                                    <MiningField name="petal width (cm)" usageType="active"/>
                                </MiningSchema>
                                <Node>
                                    <True/>
                                    <Node score="0.0452331528">
                                        <SimplePredicate field="standardScaler(petal length (cm))" operator="lessThan" value="-0.7968105080000000"/>
                                    </Node>
                                    <Node score="-0.0452589579">
                                        <SimplePredicate field="standardScaler(petal length (cm))" operator="greaterOrEqual" value="-0.7968105080000000"/>
                                    </Node>
                                </Node>
                            </TreeModel>
                        </Segment>
                        <Segment id="27" weight="1">
                            <True/>
                            <TreeModel modelName="DecisionTreeModel" functionName="regression" missingValuePenalty="1.0" noTrueChildStrategy="returnLastPrediction">
                                <MiningSchema>
                                    <MiningField name="sepal length (cm)" usageType="active"/>
                                    <MiningField name="sepal width (cm)" usageType="active"/>
                                    <MiningField name="petal length (cm)" usageType="active"/>
                                    <MiningField name="petal width (cm)" usageType="active"/>
                                </MiningSchema>
                                <Node>
                                    <True/>
                                    <Node score="0.0443513878">
                                        <SimplePredicate field="standardScaler(petal length (cm))" operator="lessThan" value="-0.7968105080000000"/>
                                    </Node>
                                    <Node score="-0.044667758">
                                        <SimplePredicate field="standardScaler(petal length (cm))" operator="greaterOrEqual" value="-0.7968105080000000"/>
                                    </Node>
                                </Node>
                            </TreeModel>
                        </Segment>
                        <Segment id="28" weight="1">
                            <True/>
                            <TreeModel modelName="DecisionTreeModel" functionName="regression" missingValuePenalty="1.0" noTrueChildStrategy="returnLastPrediction">
                                <MiningSchema>
                                    <MiningField name="sepal length (cm)" usageType="active"/>
                                    <MiningField name="sepal width (cm)" usageType="active"/>
                                    <MiningField name="petal length (cm)" usageType="active"/>
                                    <MiningField name="petal width (cm)" usageType="active"/>
                                </MiningSchema>
                                <Node>
                                    <True/>
                                    <Node score="0.0434851348">
                                        <SimplePredicate field="standardScaler(petal length (cm))" operator="lessThan" value="-0.7968105080000000"/>
                                    </Node>
                                    <Node score="-0.0440307669">
                                        <SimplePredicate field="standardScaler(petal length (cm))" operator="greaterOrEqual" value="-0.7968105080000000"/>
                                    </Node>
                                </Node>
                            </TreeModel>
                        </Segment>
                        <Segment id="29" weight="1">
                            <True/>
                            <TreeModel modelName="DecisionTreeModel" functionName="regression" missingValuePenalty="1.0" noTrueChildStrategy="returnLastPrediction">
                                <MiningSchema>
                                    <MiningField name="sepal length (cm)" usageType="active"/>
                                    <MiningField name="sepal width (cm)" usageType="active"/>
                                    <MiningField name="petal length (cm)" usageType="active"/>
                                    <MiningField name="petal width (cm)" usageType="active"/>
                                </MiningSchema>
                                <Node>
                                    <True/>
                                    <Node score="0.0427159108">
                                        <SimplePredicate field="standardScaler(petal length (cm))" operator="lessThan" value="-0.7968105080000000"/>
                                    </Node>
                                    <Node score="-0.043433696">
                                        <SimplePredicate field="standardScaler(petal length (cm))" operator="greaterOrEqual" value="-0.7968105080000000"/>
                                    </Node>
                                </Node>
                            </TreeModel>
                        </Segment>
                        <Segment id="30" weight="1">
                            <True/>
                            <TreeModel modelName="DecisionTreeModel" functionName="regression" missingValuePenalty="1.0" noTrueChildStrategy="returnLastPrediction">
                                <MiningSchema>
                                    <MiningField name="sepal length (cm)" usageType="active"/>
                                    <MiningField name="sepal width (cm)" usageType="active"/>
                                    <MiningField name="petal length (cm)" usageType="active"/>
                                    <MiningField name="petal width (cm)" usageType="active"/>
                                </MiningSchema>
                                <Node>
                                    <True/>
                                    <Node score="0.041870255">
                                        <SimplePredicate field="standardScaler(petal length (cm))" operator="lessThan" value="-0.7968105080000000"/>
                                    </Node>
                                    <Node score="-0.0427864455">
                                        <SimplePredicate field="standardScaler(petal length (cm))" operator="greaterOrEqual" value="-0.7968105080000000"/>
                                    </Node>
                                </Node>
                            </TreeModel>
                        </Segment>
                        <Segment id="31" weight="1">
                            <True/>
                            <TreeModel modelName="DecisionTreeModel" functionName="regression" missingValuePenalty="1.0" noTrueChildStrategy="returnLastPrediction">
                                <MiningSchema>
                                    <MiningField name="sepal length (cm)" usageType="active"/>
                                    <MiningField name="sepal width (cm)" usageType="active"/>
                                    <MiningField name="petal length (cm)" usageType="active"/>
                                    <MiningField name="petal width (cm)" usageType="active"/>
                                </MiningSchema>
                                <Node>
                                    <True/>
                                    <Node score="0.0410287976">
                                        <SimplePredicate field="standardScaler(petal length (cm))" operator="lessThan" value="-0.7968105080000000"/>
                                    </Node>
                                    <Node score="-0.0421738699">
                                        <SimplePredicate field="standardScaler(petal length (cm))" operator="greaterOrEqual" value="-0.7968105080000000"/>
                                    </Node>
                                </Node>
                            </TreeModel>
                        </Segment>
                        <Segment id="32" weight="1">
                            <True/>
                            <TreeModel modelName="DecisionTreeModel" functionName="regression" missingValuePenalty="1.0" noTrueChildStrategy="returnLastPrediction">
                                <MiningSchema>
                                    <MiningField name="sepal length (cm)" usageType="active"/>
                                    <MiningField name="sepal width (cm)" usageType="active"/>
                                    <MiningField name="petal length (cm)" usageType="active"/>
                                    <MiningField name="petal width (cm)" usageType="active"/>
                                </MiningSchema>
                                <Node>
                                    <True/>
                                    <Node score="0.0401975326">
                                        <SimplePredicate field="standardScaler(petal length (cm))" operator="lessThan" value="-0.7968105080000000"/>
                                    </Node>
                                    <Node score="-0.0415219441">
                                        <SimplePredicate field="standardScaler(petal length (cm))" operator="greaterOrEqual" value="-0.7968105080000000"/>
                                    </Node>
                                </Node>
                            </TreeModel>
                        </Segment>
                        <Segment id="33" weight="1">
                            <True/>
                            <TreeModel modelName="DecisionTreeModel" functionName="regression" missingValuePenalty="1.0" noTrueChildStrategy="returnLastPrediction">
                                <MiningSchema>
                                    <MiningField name="sepal length (cm)" usageType="active"/>
                                    <MiningField name="sepal width (cm)" usageType="active"/>
                                    <MiningField name="petal length (cm)" usageType="active"/>
                                    <MiningField name="petal width (cm)" usageType="active"/>
                                </MiningSchema>
                                <Node>
                                    <True/>
                                    <Node score="0.0393725112">
                                        <SimplePredicate field="standardScaler(petal length (cm))" operator="lessThan" value="-0.7968105080000000"/>
                                    </Node>
                                    <Node score="-0.0408695079">
                                        <SimplePredicate field="standardScaler(petal length (cm))" operator="greaterOrEqual" value="-0.7968105080000000"/>
                                    </Node>
                                </Node>
                            </TreeModel>
                        </Segment>
                        <Segment id="34" weight="1">
                            <True/>
                            <TreeModel modelName="DecisionTreeModel" functionName="regression" missingValuePenalty="1.0" noTrueChildStrategy="returnLastPrediction">
                                <MiningSchema>
                                    <MiningField name="sepal length (cm)" usageType="active"/>
                                    <MiningField name="sepal width (cm)" usageType="active"/>
                                    <MiningField name="petal length (cm)" usageType="active"/>
                                    <MiningField name="petal width (cm)" usageType="active"/>
                                </MiningSchema>
                                <Node>
                                    <True/>
                                    <Node score="0.0386435315">
                                        <SimplePredicate field="standardScaler(petal length (cm))" operator="lessThan" value="-0.7968105080000000"/>
                                    </Node>
                                    <Node score="-0.0402468257">
                                        <SimplePredicate field="standardScaler(petal length (cm))" operator="greaterOrEqual" value="-0.7968105080000000"/>
                                    </Node>
                                </Node>
                            </TreeModel>
                        </Segment>
                        <Segment id="35" weight="1">
                            <True/>
                            <TreeModel modelName="DecisionTreeModel" functionName="regression" missingValuePenalty="1.0" noTrueChildStrategy="returnLastPrediction">
                                <MiningSchema>
                                    <MiningField name="sepal length (cm)" usageType="active"/>
                                    <MiningField name="sepal width (cm)" usageType="active"/>
                                    <MiningField name="petal length (cm)" usageType="active"/>
                                    <MiningField name="petal width (cm)" usageType="active"/>
                                </MiningSchema>
                                <Node>
                                    <True/>
                                    <Node score="0.0379234068">
                                        <SimplePredicate field="standardScaler(petal length (cm))" operator="lessThan" value="-0.7968105080000000"/>
                                    </Node>
                                    <Node score="-0.0396226607">
                                        <SimplePredicate field="standardScaler(petal length (cm))" operator="greaterOrEqual" value="-0.7968105080000000"/>
                                    </Node>
                                </Node>
                            </TreeModel>
                        </Segment>
                        <Segment id="36" weight="1">
                            <True/>
                            <TreeModel modelName="DecisionTreeModel" functionName="regression" missingValuePenalty="1.0" noTrueChildStrategy="returnLastPrediction">
                                <MiningSchema>
                                    <MiningField name="sepal length (cm)" usageType="active"/>
                                    <MiningField name="sepal width (cm)" usageType="active"/>
                                    <MiningField name="petal length (cm)" usageType="active"/>
                                    <MiningField name="petal width (cm)" usageType="active"/>
                                </MiningSchema>
                                <Node>
                                    <True/>
                                    <Node score="0.0371883735">
                                        <SimplePredicate field="standardScaler(petal length (cm))" operator="lessThan" value="-0.7968105080000000"/>
                                    </Node>
                                    <Node score="-0.0389745496">
                                        <SimplePredicate field="standardScaler(petal length (cm))" operator="greaterOrEqual" value="-0.7968105080000000"/>
                                    </Node>
                                </Node>
                            </TreeModel>
                        </Segment>
                        <Segment id="37" weight="1">
                            <True/>
                            <TreeModel modelName="DecisionTreeModel" functionName="regression" missingValuePenalty="1.0" noTrueChildStrategy="returnLastPrediction">
                                <MiningSchema>
                                    <MiningField name="sepal length (cm)" usageType="active"/>
                                    <MiningField name="sepal width (cm)" usageType="active"/>
                                    <MiningField name="petal length (cm)" usageType="active"/>
                                    <MiningField name="petal width (cm)" usageType="active"/>
                                </MiningSchema>
                                <Node>
                                    <True/>
                                    <Node score="0.0364619605">
                                        <SimplePredicate field="standardScaler(petal length (cm))" operator="lessThan" value="-0.7968105080000000"/>
                                    </Node>
                                    <Node score="-0.0383281261">
                                        <SimplePredicate field="standardScaler(petal length (cm))" operator="greaterOrEqual" value="-0.7968105080000000"/>
                                    </Node>
                                </Node>
                            </TreeModel>
                        </Segment>
                        <Segment id="38" weight="1">
                            <True/>
                            <TreeModel modelName="DecisionTreeModel" functionName="regression" missingValuePenalty="1.0" noTrueChildStrategy="returnLastPrediction">
                                <MiningSchema>
                                    <MiningField name="sepal length (cm)" usageType="active"/>
                                    <MiningField name="sepal width (cm)" usageType="active"/>
                                    <MiningField name="petal length (cm)" usageType="active"/>
                                    <MiningField name="petal width (cm)" usageType="active"/>
                                </MiningSchema>
                                <Node>
                                    <True/>
                                    <Node score="0.0356644131">
                                        <SimplePredicate field="standardScaler(petal length (cm))" operator="lessThan" value="-0.7968105080000000"/>
                                    </Node>
                                    <Node score="-0.037679743">
                                        <SimplePredicate field="standardScaler(petal length (cm))" operator="greaterOrEqual" value="-0.7968105080000000"/>
                                    </Node>
                                </Node>
                            </TreeModel>
                        </Segment>
                        <Segment id="39" weight="1">
                            <True/>
                            <TreeModel modelName="DecisionTreeModel" functionName="regression" missingValuePenalty="1.0" noTrueChildStrategy="returnLastPrediction">
                                <MiningSchema>
                                    <MiningField name="sepal length (cm)" usageType="active"/>
                                    <MiningField name="sepal width (cm)" usageType="active"/>
                                    <MiningField name="petal length (cm)" usageType="active"/>
                                    <MiningField name="petal width (cm)" usageType="active"/>
                                </MiningSchema>
                                <Node>
                                    <True/>
                                    <Node score="0.0349444225">
                                        <SimplePredicate field="standardScaler(petal length (cm))" operator="lessThan" value="-0.7968105080000000"/>
                                    </Node>
                                    <Node score="-0.0370579772">
                                        <SimplePredicate field="standardScaler(petal length (cm))" operator="greaterOrEqual" value="-0.7968105080000000"/>
                                    </Node>
                                </Node>
                            </TreeModel>
                        </Segment>
                        <Segment id="40" weight="1">
                            <True/>
                            <TreeModel modelName="DecisionTreeModel" functionName="regression" missingValuePenalty="1.0" noTrueChildStrategy="returnLastPrediction">
                                <MiningSchema>
                                    <MiningField name="sepal length (cm)" usageType="active"/>
                                    <MiningField name="sepal width (cm)" usageType="active"/>
                                    <MiningField name="petal length (cm)" usageType="active"/>
                                    <MiningField name="petal width (cm)" usageType="active"/>
                                </MiningSchema>
                                <Node>
                                    <True/>
                                    <Node score="0.0342421569">
                                        <SimplePredicate field="standardScaler(petal length (cm))" operator="lessThan" value="-0.7968105080000000"/>
                                    </Node>
                                    <Node score="-0.0364130698">
                                        <SimplePredicate field="standardScaler(petal length (cm))" operator="greaterOrEqual" value="-0.7968105080000000"/>
                                    </Node>
                                </Node>
                            </TreeModel>
                        </Segment>
                        <Segment id="41" weight="1">
                            <True/>
                            <TreeModel modelName="DecisionTreeModel" functionName="regression" missingValuePenalty="1.0" noTrueChildStrategy="returnLastPrediction">
                                <MiningSchema>
                                    <MiningField name="sepal length (cm)" usageType="active"/>
                                    <MiningField name="sepal width (cm)" usageType="active"/>
                                    <MiningField name="petal length (cm)" usageType="active"/>
                                    <MiningField name="petal width (cm)" usageType="active"/>
                                </MiningSchema>
                                <Node>
                                    <True/>
                                    <Node score="0.0334665291">
                                        <SimplePredicate field="standardScaler(petal length (cm))" operator="lessThan" value="-0.7968105080000000"/>
                                    </Node>
                                    <Node score="-0.035838075">
                                        <SimplePredicate field="standardScaler(petal length (cm))" operator="greaterOrEqual" value="-0.7968105080000000"/>
                                    </Node>
                                </Node>
                            </TreeModel>
                        </Segment>
                        <Segment id="42" weight="1">
                            <True/>
                            <TreeModel modelName="DecisionTreeModel" functionName="regression" missingValuePenalty="1.0" noTrueChildStrategy="returnLastPrediction">
                                <MiningSchema>
                                    <MiningField name="sepal length (cm)" usageType="active"/>
                                    <MiningField name="sepal width (cm)" usageType="active"/>
                                    <MiningField name="petal length (cm)" usageType="active"/>
                                    <MiningField name="petal width (cm)" usageType="active"/>
                                </MiningSchema>
                                <Node>
                                    <True/>
                                    <Node score="0.0326999612">
                                        <SimplePredicate field="standardScaler(petal length (cm))" operator="lessThan" value="-0.7968105080000000"/>
                                    </Node>
                                    <Node score="-0.035180226">
                                        <SimplePredicate field="standardScaler(petal length (cm))" operator="greaterOrEqual" value="-0.7968105080000000"/>
                                    </Node>
                                </Node>
                            </TreeModel>
                        </Segment>
                        <Segment id="43" weight="1">
                            <True/>
                            <TreeModel modelName="DecisionTreeModel" functionName="regression" missingValuePenalty="1.0" noTrueChildStrategy="returnLastPrediction">
                                <MiningSchema>
                                    <MiningField name="sepal length (cm)" usageType="active"/>
                                    <MiningField name="sepal width (cm)" usageType="active"/>
                                    <MiningField name="petal length (cm)" usageType="active"/>
                                    <MiningField name="petal width (cm)" usageType="active"/>
                                </MiningSchema>
                                <Node>
                                    <True/>
                                    <Node score="0.0319618247">
                                        <SimplePredicate field="standardScaler(petal length (cm))" operator="lessThan" value="-0.7968105080000000"/>
                                    </Node>
                                    <Node score="-0.034630686">
                                        <SimplePredicate field="standardScaler(petal length (cm))" operator="greaterOrEqual" value="-0.7968105080000000"/>
                                    </Node>
                                </Node>
                            </TreeModel>
                        </Segment>
                        <Segment id="44" weight="1">
                            <True/>
                            <TreeModel modelName="DecisionTreeModel" functionName="regression" missingValuePenalty="1.0" noTrueChildStrategy="returnLastPrediction">
                                <MiningSchema>
                                    <MiningField name="sepal length (cm)" usageType="active"/>
                                    <MiningField name="sepal width (cm)" usageType="active"/>
                                    <MiningField name="petal length (cm)" usageType="active"/>
                                    <MiningField name="petal width (cm)" usageType="active"/>
                                </MiningSchema>
                                <Node>
                                    <True/>
                                    <Node score="0.0312364791">
                                        <SimplePredicate field="standardScaler(petal length (cm))" operator="lessThan" value="-0.7968105080000000"/>
                                    </Node>
                                    <Node score="-0.0340242796">
                                        <SimplePredicate field="standardScaler(petal length (cm))" operator="greaterOrEqual" value="-0.7968105080000000"/>
                                    </Node>
                                </Node>
                            </TreeModel>
                        </Segment>
                        <Segment id="45" weight="1">
                            <True/>
                            <TreeModel modelName="DecisionTreeModel" functionName="regression" missingValuePenalty="1.0" noTrueChildStrategy="returnLastPrediction">
                                <MiningSchema>
                                    <MiningField name="sepal length (cm)" usageType="active"/>
                                    <MiningField name="sepal width (cm)" usageType="active"/>
                                    <MiningField name="petal length (cm)" usageType="active"/>
                                    <MiningField name="petal width (cm)" usageType="active"/>
                                </MiningSchema>
                                <Node>
                                    <True/>
                                    <Node score="0.0305408221">
                                        <SimplePredicate field="standardScaler(petal length (cm))" operator="lessThan" value="-0.7968105080000000"/>
                                    </Node>
                                    <Node score="-0.0334362537">
                                        <SimplePredicate field="standardScaler(petal length (cm))" operator="greaterOrEqual" value="-0.7968105080000000"/>
                                    </Node>
                                </Node>
                            </TreeModel>
                        </Segment>
                        <Segment id="46" weight="1">
                            <True/>
                            <TreeModel modelName="DecisionTreeModel" functionName="regression" missingValuePenalty="1.0" noTrueChildStrategy="returnLastPrediction">
                                <MiningSchema>
                                    <MiningField name="sepal length (cm)" usageType="active"/>
                                    <MiningField name="sepal width (cm)" usageType="active"/>
                                    <MiningField name="petal length (cm)" usageType="active"/>
                                    <MiningField name="petal width (cm)" usageType="active"/>
                                </MiningSchema>
                                <Node>
                                    <True/>
                                    <Node score="0.0299889334">
                                        <SimplePredicate field="standardScaler(petal length (cm))" operator="lessThan" value="-0.7968105080000000"/>
                                    </Node>
                                    <Node score="-0.0328791551">
                                        <SimplePredicate field="standardScaler(petal length (cm))" operator="greaterOrEqual" value="-0.7968105080000000"/>
                                    </Node>
                                </Node>
                            </TreeModel>
                        </Segment>
                        <Segment id="47" weight="1">
                            <True/>
                            <TreeModel modelName="DecisionTreeModel" functionName="regression" missingValuePenalty="1.0" noTrueChildStrategy="returnLastPrediction">
                                <MiningSchema>
                                    <MiningField name="sepal length (cm)" usageType="active"/>
                                    <MiningField name="sepal width (cm)" usageType="active"/>
                                    <MiningField name="petal length (cm)" usageType="active"/>
                                    <MiningField name="petal width (cm)" usageType="active"/>
                                </MiningSchema>
                                <Node>
                                    <True/>
                                    <Node score="0.029335862">
                                        <SimplePredicate field="standardScaler(petal length (cm))" operator="lessThan" value="-0.7968105080000000"/>
                                    </Node>
                                    <Node score="-0.0323217399">
                                        <SimplePredicate field="standardScaler(petal length (cm))" operator="greaterOrEqual" value="-0.7968105080000000"/>
                                    </Node>
                                </Node>
                            </TreeModel>
                        </Segment>
                        <Segment id="48" weight="1">
                            <True/>
                            <TreeModel modelName="DecisionTreeModel" functionName="regression" missingValuePenalty="1.0" noTrueChildStrategy="returnLastPrediction">
                                <MiningSchema>
                                    <MiningField name="sepal length (cm)" usageType="active"/>
                                    <MiningField name="sepal width (cm)" usageType="active"/>
                                    <MiningField name="petal length (cm)" usageType="active"/>
                                    <MiningField name="petal width (cm)" usageType="active"/>
                                </MiningSchema>
                                <Node>
                                    <True/>
                                    <Node score="0.0288333055">
                                        <SimplePredicate field="standardScaler(petal length (cm))" operator="lessThan" value="-0.7968105080000000"/>
                                    </Node>
                                    <Node score="-0.0317310132">
                                        <SimplePredicate field="standardScaler(petal length (cm))" operator="greaterOrEqual" value="-0.7968105080000000"/>
                                    </Node>
                                </Node>
                            </TreeModel>
                        </Segment>
                        <Segment id="49" weight="1">
                            <True/>
                            <TreeModel modelName="DecisionTreeModel" functionName="regression" missingValuePenalty="1.0" noTrueChildStrategy="returnLastPrediction">
                                <MiningSchema>
                                    <MiningField name="sepal length (cm)" usageType="active"/>
                                    <MiningField name="sepal width (cm)" usageType="active"/>
                                    <MiningField name="petal length (cm)" usageType="active"/>
                                    <MiningField name="petal width (cm)" usageType="active"/>
                                </MiningSchema>
                                <Node>
                                    <True/>
                                    <Node score="0.0283768177">
                                        <SimplePredicate field="standardScaler(petal length (cm))" operator="lessThan" value="-0.7968105080000000"/>
                                    </Node>
                                    <Node score="-0.0312252287">
                                        <SimplePredicate field="standardScaler(petal length (cm))" operator="greaterOrEqual" value="-0.7968105080000000"/>
                                    </Node>
                                </Node>
                            </TreeModel>
                        </Segment>
                        <Segment id="50" weight="1">
                            <True/>
                            <TreeModel modelName="DecisionTreeModel" functionName="regression" missingValuePenalty="1.0" noTrueChildStrategy="returnLastPrediction">
                                <MiningSchema>
                                    <MiningField name="sepal length (cm)" usageType="active"/>
                                    <MiningField name="sepal width (cm)" usageType="active"/>
                                    <MiningField name="petal length (cm)" usageType="active"/>
                                    <MiningField name="petal width (cm)" usageType="active"/>
                                </MiningSchema>
                                <Node>
                                    <True/>
                                    <Node score="0.027761573">
                                        <SimplePredicate field="standardScaler(petal length (cm))" operator="lessThan" value="-0.7968105080000000"/>
                                    </Node>
                                    <Node score="-0.0306090917">
                                        <SimplePredicate field="standardScaler(petal length (cm))" operator="greaterOrEqual" value="-0.7968105080000000"/>
                                    </Node>
                                </Node>
                            </TreeModel>
                        </Segment>
                        <Segment id="51" weight="1">
                            <True/>
                            <TreeModel modelName="DecisionTreeModel" functionName="regression" missingValuePenalty="1.0" noTrueChildStrategy="returnLastPrediction">
                                <MiningSchema>
                                    <MiningField name="sepal length (cm)" usageType="active"/>
                                    <MiningField name="sepal width (cm)" usageType="active"/>
                                    <MiningField name="petal length (cm)" usageType="active"/>
                                    <MiningField name="petal width (cm)" usageType="active"/>
                                </MiningSchema>
                                <Node>
                                    <True/>
                                    <Node score="0.0271614995">
                                        <SimplePredicate field="standardScaler(petal length (cm))" operator="lessThan" value="-0.7968105080000000"/>
                                    </Node>
                                    <Node score="-0.030004112">
                                        <SimplePredicate field="standardScaler(petal length (cm))" operator="greaterOrEqual" value="-0.7968105080000000"/>
                                    </Node>
                                </Node>
                            </TreeModel>
                        </Segment>
                        <Segment id="52" weight="1">
                            <True/>
                            <TreeModel modelName="DecisionTreeModel" functionName="regression" missingValuePenalty="1.0" noTrueChildStrategy="returnLastPrediction">
                                <MiningSchema>
                                    <MiningField name="sepal length (cm)" usageType="active"/>
                                    <MiningField name="sepal width (cm)" usageType="active"/>
                                    <MiningField name="petal length (cm)" usageType="active"/>
                                    <MiningField name="petal width (cm)" usageType="active"/>
                                </MiningSchema>
                                <Node>
                                    <True/>
                                    <Node score="0.0265767872">
                                        <SimplePredicate field="standardScaler(petal length (cm))" operator="lessThan" value="-0.7968105080000000"/>
                                    </Node>
                                    <Node score="-0.0294162426">
                                        <SimplePredicate field="standardScaler(petal length (cm))" operator="greaterOrEqual" value="-0.7968105080000000"/>
                                    </Node>
                                </Node>
                            </TreeModel>
                        </Segment>
                        <Segment id="53" weight="1">
                            <True/>
                            <TreeModel modelName="DecisionTreeModel" functionName="regression" missingValuePenalty="1.0" noTrueChildStrategy="returnLastPrediction">
                                <MiningSchema>
                                    <MiningField name="sepal length (cm)" usageType="active"/>
                                    <MiningField name="sepal width (cm)" usageType="active"/>
                                    <MiningField name="petal length (cm)" usageType="active"/>
                                    <MiningField name="petal width (cm)" usageType="active"/>
                                </MiningSchema>
                                <Node>
                                    <True/>
                                    <Node score="0.0260179248">
                                        <SimplePredicate field="standardScaler(petal length (cm))" operator="lessThan" value="-0.7968105080000000"/>
                                    </Node>
                                    <Node score="-0.0288875382">
                                        <SimplePredicate field="standardScaler(petal length (cm))" operator="greaterOrEqual" value="-0.7968105080000000"/>
                                    </Node>
                                </Node>
                            </TreeModel>
                        </Segment>
                        <Segment id="54" weight="1">
                            <True/>
                            <TreeModel modelName="DecisionTreeModel" functionName="regression" missingValuePenalty="1.0" noTrueChildStrategy="returnLastPrediction">
                                <MiningSchema>
                                    <MiningField name="sepal length (cm)" usageType="active"/>
                                    <MiningField name="sepal width (cm)" usageType="active"/>
                                    <MiningField name="petal length (cm)" usageType="active"/>
                                    <MiningField name="petal width (cm)" usageType="active"/>
                                </MiningSchema>
                                <Node>
                                    <True/>
                                    <Node score="0.0254636947">
                                        <SimplePredicate field="standardScaler(petal length (cm))" operator="lessThan" value="-0.7968105080000000"/>
                                    </Node>
                                    <Node score="-0.0283209886">
                                        <SimplePredicate field="standardScaler(petal length (cm))" operator="greaterOrEqual" value="-0.7968105080000000"/>
                                    </Node>
                                </Node>
                            </TreeModel>
                        </Segment>
                        <Segment id="55" weight="1">
                            <True/>
                            <TreeModel modelName="DecisionTreeModel" functionName="regression" missingValuePenalty="1.0" noTrueChildStrategy="returnLastPrediction">
                                <MiningSchema>
                                    <MiningField name="sepal length (cm)" usageType="active"/>
                                    <MiningField name="sepal width (cm)" usageType="active"/>
                                    <MiningField name="petal length (cm)" usageType="active"/>
                                    <MiningField name="petal width (cm)" usageType="active"/>
                                </MiningSchema>
                                <Node>
                                    <True/>
                                    <Node score="0.0243506078">
                                        <SimplePredicate field="standardScaler(petal length (cm))" operator="lessThan" value="-0.3884888890000000"/>
                                    </Node>
                                    <Node score="-0.0276788622">
                                        <SimplePredicate field="standardScaler(petal length (cm))" operator="greaterOrEqual" value="-0.3884888890000000"/>
                                    </Node>
                                </Node>
                            </TreeModel>
                        </Segment>
                        <Segment id="56" weight="1">
                            <True/>
                            <TreeModel modelName="DecisionTreeModel" functionName="regression" missingValuePenalty="1.0" noTrueChildStrategy="returnLastPrediction">
                                <MiningSchema>
                                    <MiningField name="sepal length (cm)" usageType="active"/>
                                    <MiningField name="sepal width (cm)" usageType="active"/>
                                    <MiningField name="petal length (cm)" usageType="active"/>
                                    <MiningField name="petal width (cm)" usageType="active"/>
                                </MiningSchema>
                                <Node>
                                    <True/>
                                    <Node score="0.0222451873">
                                        <SimplePredicate field="standardScaler(petal length (cm))" operator="lessThan" value="-0.1259963810000000"/>
                                    </Node>
                                    <Node score="-0.0267751999">
                                        <SimplePredicate field="standardScaler(petal length (cm))" operator="greaterOrEqual" value="-0.1259963810000000"/>
                                    </Node>
                                </Node>
                            </TreeModel>
                        </Segment>
                        <Segment id="57" weight="1">
                            <True/>
                            <TreeModel modelName="DecisionTreeModel" functionName="regression" missingValuePenalty="1.0" noTrueChildStrategy="returnLastPrediction">
                                <MiningSchema>
                                    <MiningField name="sepal length (cm)" usageType="active"/>
                                    <MiningField name="sepal width (cm)" usageType="active"/>
                                    <MiningField name="petal length (cm)" usageType="active"/>
                                    <MiningField name="petal width (cm)" usageType="active"/>
                                </MiningSchema>
                                <Node>
                                    <True/>
                                    <Node score="0.0214604028">
                                        <SimplePredicate field="standardScaler(petal length (cm))" operator="lessThan" value="-0.0093330666400000"/>
                                    </Node>
                                    <Node score="-0.0261773504">
                                        <SimplePredicate field="standardScaler(petal length (cm))" operator="greaterOrEqual" value="-0.0093330666400000"/>
                                    </Node>
                                </Node>
                            </TreeModel>
                        </Segment>
                        <Segment id="58" weight="1">
                            <True/>
                            <TreeModel modelName="DecisionTreeModel" functionName="regression" missingValuePenalty="1.0" noTrueChildStrategy="returnLastPrediction">
                                <MiningSchema>
                                    <MiningField name="sepal length (cm)" usageType="active"/>
                                    <MiningField name="sepal width (cm)" usageType="active"/>
                                    <MiningField name="petal length (cm)" usageType="active"/>
                                    <MiningField name="petal width (cm)" usageType="active"/>
                                </MiningSchema>
                                <Node>
                                    <True/>
                                    <Node score="0.0205131974">
                                        <SimplePredicate field="standardScaler(petal length (cm))" operator="lessThan" value="0.0781644285000000"/>
                                    </Node>
                                    <Node score="-0.0255636275">
                                        <SimplePredicate field="standardScaler(petal length (cm))" operator="greaterOrEqual" value="0.0781644285000000"/>
                                    </Node>
                                </Node>
                            </TreeModel>
                        </Segment>
                        <Segment id="59" weight="1">
                            <True/>
                            <TreeModel modelName="DecisionTreeModel" functionName="regression" missingValuePenalty="1.0" noTrueChildStrategy="returnLastPrediction">
                                <MiningSchema>
                                    <MiningField name="sepal length (cm)" usageType="active"/>
                                    <MiningField name="sepal width (cm)" usageType="active"/>
                                    <MiningField name="petal length (cm)" usageType="active"/>
                                    <MiningField name="petal width (cm)" usageType="active"/>
                                </MiningSchema>
                                <Node score="-0.00348969898">
                                    <True/>
                                </Node>
                            </TreeModel>
                        </Segment>
                        <Segment id="60" weight="1">
                            <True/>
                            <TreeModel modelName="DecisionTreeModel" functionName="regression" missingValuePenalty="1.0" noTrueChildStrategy="returnLastPrediction">
                                <MiningSchema>
                                    <MiningField name="sepal length (cm)" usageType="active"/>
                                    <MiningField name="sepal width (cm)" usageType="active"/>
                                    <MiningField name="petal length (cm)" usageType="active"/>
                                    <MiningField name="petal width (cm)" usageType="active"/>
                                </MiningSchema>
                                <Node score="-0.00324644032">
                                    <True/>
                                </Node>
                            </TreeModel>
                        </Segment>
                        <Segment id="61" weight="1">
                            <True/>
                            <TreeModel modelName="DecisionTreeModel" functionName="regression" missingValuePenalty="1.0" noTrueChildStrategy="returnLastPrediction">
                                <MiningSchema>
                                    <MiningField name="sepal length (cm)" usageType="active"/>
                                    <MiningField name="sepal width (cm)" usageType="active"/>
                                    <MiningField name="petal length (cm)" usageType="active"/>
                                    <MiningField name="petal width (cm)" usageType="active"/>
                                </MiningSchema>
                                <Node score="-0.00331488787">
                                    <True/>
                                </Node>
                            </TreeModel>
                        </Segment>
                        <Segment id="62" weight="1">
                            <True/>
                            <TreeModel modelName="DecisionTreeModel" functionName="regression" missingValuePenalty="1.0" noTrueChildStrategy="returnLastPrediction">
                                <MiningSchema>
                                    <MiningField name="sepal length (cm)" usageType="active"/>
                                    <MiningField name="sepal width (cm)" usageType="active"/>
                                    <MiningField name="petal length (cm)" usageType="active"/>
                                    <MiningField name="petal width (cm)" usageType="active"/>
                                </MiningSchema>
                                <Node score="-0.00331524061">
                                    <True/>
                                </Node>
                            </TreeModel>
                        </Segment>
                        <Segment id="63" weight="1">
                            <True/>
                            <TreeModel modelName="DecisionTreeModel" functionName="regression" missingValuePenalty="1.0" noTrueChildStrategy="returnLastPrediction">
                                <MiningSchema>
                                    <MiningField name="sepal length (cm)" usageType="active"/>
                                    <MiningField name="sepal width (cm)" usageType="active"/>
                                    <MiningField name="petal length (cm)" usageType="active"/>
                                    <MiningField name="petal width (cm)" usageType="active"/>
                                </MiningSchema>
                                <Node score="-0.0033868195">
                                    <True/>
                                </Node>
                            </TreeModel>
                        </Segment>
                        <Segment id="64" weight="1">
                            <True/>
                            <TreeModel modelName="DecisionTreeModel" functionName="regression" missingValuePenalty="1.0" noTrueChildStrategy="returnLastPrediction">
                                <MiningSchema>
                                    <MiningField name="sepal length (cm)" usageType="active"/>
                                    <MiningField name="sepal width (cm)" usageType="active"/>
                                    <MiningField name="petal length (cm)" usageType="active"/>
                                    <MiningField name="petal width (cm)" usageType="active"/>
                                </MiningSchema>
                                <Node score="-0.00309645222">
                                    <True/>
                                </Node>
                            </TreeModel>
                        </Segment>
                        <Segment id="65" weight="1">
                            <True/>
                            <TreeModel modelName="DecisionTreeModel" functionName="regression" missingValuePenalty="1.0" noTrueChildStrategy="returnLastPrediction">
                                <MiningSchema>
                                    <MiningField name="sepal length (cm)" usageType="active"/>
                                    <MiningField name="sepal width (cm)" usageType="active"/>
                                    <MiningField name="petal length (cm)" usageType="active"/>
                                    <MiningField name="petal width (cm)" usageType="active"/>
                                </MiningSchema>
                                <Node score="-0.00310979271">
                                    <True/>
                                </Node>
                            </TreeModel>
                        </Segment>
                        <Segment id="66" weight="1">
                            <True/>
                            <TreeModel modelName="DecisionTreeModel" functionName="regression" missingValuePenalty="1.0" noTrueChildStrategy="returnLastPrediction">
                                <MiningSchema>
                                    <MiningField name="sepal length (cm)" usageType="active"/>
                                    <MiningField name="sepal width (cm)" usageType="active"/>
                                    <MiningField name="petal length (cm)" usageType="active"/>
                                    <MiningField name="petal width (cm)" usageType="active"/>
                                </MiningSchema>
                                <Node score="-0.00327685173">
                                    <True/>
                                </Node>
                            </TreeModel>
                        </Segment>
                        <Segment id="67" weight="1">
                            <True/>
                            <TreeModel modelName="DecisionTreeModel" functionName="regression" missingValuePenalty="1.0" noTrueChildStrategy="returnLastPrediction">
                                <MiningSchema>
                                    <MiningField name="sepal length (cm)" usageType="active"/>
                                    <MiningField name="sepal width (cm)" usageType="active"/>
                                    <MiningField name="petal length (cm)" usageType="active"/>
                                    <MiningField name="petal width (cm)" usageType="active"/>
                                </MiningSchema>
                                <Node score="-0.00324614882">
                                    <True/>
                                </Node>
                            </TreeModel>
                        </Segment>
                        <Segment id="68" weight="1">
                            <True/>
                            <TreeModel modelName="DecisionTreeModel" functionName="regression" missingValuePenalty="1.0" noTrueChildStrategy="returnLastPrediction">
                                <MiningSchema>
                                    <MiningField name="sepal length (cm)" usageType="active"/>
                                    <MiningField name="sepal width (cm)" usageType="active"/>
                                    <MiningField name="petal length (cm)" usageType="active"/>
                                    <MiningField name="petal width (cm)" usageType="active"/>
                                </MiningSchema>
                                <Node score="-0.00329204253">
                                    <True/>
                                </Node>
                            </TreeModel>
                        </Segment>
                        <Segment id="69" weight="1">
                            <True/>
                            <TreeModel modelName="DecisionTreeModel" functionName="regression" missingValuePenalty="1.0" noTrueChildStrategy="returnLastPrediction">
                                <MiningSchema>
                                    <MiningField name="sepal length (cm)" usageType="active"/>
                                    <MiningField name="sepal width (cm)" usageType="active"/>
                                    <MiningField name="petal length (cm)" usageType="active"/>
                                    <MiningField name="petal width (cm)" usageType="active"/>
                                </MiningSchema>
                                <Node score="-0.00310141942">
                                    <True/>
                                </Node>
                            </TreeModel>
                        </Segment>
                        <Segment id="70" weight="1">
                            <True/>
                            <TreeModel modelName="DecisionTreeModel" functionName="regression" missingValuePenalty="1.0" noTrueChildStrategy="returnLastPrediction">
                                <MiningSchema>
                                    <MiningField name="sepal length (cm)" usageType="active"/>
                                    <MiningField name="sepal width (cm)" usageType="active"/>
                                    <MiningField name="petal length (cm)" usageType="active"/>
                                    <MiningField name="petal width (cm)" usageType="active"/>
                                </MiningSchema>
                                <Node score="-0.00307551771">
                                    <True/>
                                </Node>
                            </TreeModel>
